{
  "input_size": 32,
  "hidden_size": 16,
  "output_size": 9,
  "w1": [
    [
      -0.07,
      -0.035,
      0.0,
      0.035,
      0.07,
      0.105,
      0.14,
      0.175,
      -0.175,
      -0.14,
      -0.105,
      -0.07,
      -0.035,
      0.0,
      0.035,
      0.07,
      0.105,
      0.14,
      0.175,
      -0.175,
      -0.14,
      -0.105,
      -0.07,
      -0.035,
      0.0,
      0.035,
      0.07,
      0.105,
      0.14,
      0.175,
      -0.175,
      -0.14
    ],
    [
      0.035,
      0.105,
      0.175,
      -0.14,
      -0.07,
      0.0,
      0.07,
      0.14,
      -0.175,
      -0.105,
      -0.035,
      0.035,
      0.105,
      0.175,
      -0.14,
      -0.07,
      0.0,
      0.07,
      0.14,
      -0.175,
      -0.105,
      -0.035,
      0.035,
      0.105,
      0.175,
      -0.14,
      -0.07,
      0.0,
      0.07,
      0.14,
      -0.175,
      -0.105
    ],
    [
      0.14,
      -0.14,
      -0.035,
      0.07,
      0.175,
      -0.105,
      0.0,
      0.105,
      -0.175,
      -0.07,
      0.035,
      0.14,
      -0.14,
      -0.035,
      0.07,
      0.175,
      -0.105,
      0.0,
      0.105,
      -0.175,
      -0.07,
      0.035,
      0.14,
      -0.14,
      -0.035,
      0.07,
      0.175,
      -0.105,
      0.0,
      0.105,
      -0.175,
      -0.07
    ],
    [
      -0.14,
      0.0,
      0.14,
      -0.105,
      0.035,
      0.175,
      -0.07,
      0.07,
      -0.175,
      -0.035,
      0.105,
      -0.14,
      0.0,
      0.14,
      -0.105,
      0.035,
      0.175,
      -0.07,
      0.07,
      -0.175,
      -0.035,
      0.105,
      -0.14,
      0.0,
      0.14,
      -0.105,
      0.035,
      0.175,
      -0.07,
      0.07,
      -0.175,
      -0.035
    ],
    [
      -0.035,
      0.14,
      -0.07,
      0.105,
      -0.105,
      0.07,
      -0.14,
      0.035,
      -0.175,
      0.0,
      0.175,
      -0.035,
      0.14,
      -0.07,
      0.105,
      -0.105,
      0.07,
      -0.14,
      0.035,
      -0.175,
      0.0,
      0.175,
      -0.035,
      0.14,
      -0.07,
      0.105,
      -0.105,
      0.07,
      -0.14,
      0.035,
      -0.175,
      0.0
    ],
    [
      0.07,
      -0.105,
      0.105,
      -0.07,
      0.14,
      -0.035,
      0.175,
      0.0,
      -0.175,
      0.035,
      -0.14,
      0.07,
      -0.105,
      0.105,
      -0.07,
      0.14,
      -0.035,
      0.175,
      0.0,
      -0.175,
      0.035,
      -0.14,
      0.07,
      -0.105,
      0.105,
      -0.07,
      0.14,
      -0.035,
      0.175,
      0.0,
      -0.175,
      0.035
    ],
    [
      0.175,
      0.035,
      -0.105,
      0.14,
      0.0,
      -0.14,
      0.105,
      -0.035,
      -0.175,
      0.07,
      -0.07,
      0.175,
      0.035,
      -0.105,
      0.14,
      0.0,
      -0.14,
      0.105,
      -0.035,
      -0.175,
      0.07,
      -0.07,
      0.175,
      0.035,
      -0.105,
      0.14,
      0.0,
      -0.14,
      0.105,
      -0.035,
      -0.175,
      0.07
    ],
    [
      -0.105,
      0.175,
      0.07,
      -0.035,
      -0.14,
      0.14,
      0.035,
      -0.07,
      -0.175,
      0.105,
      0.0,
      -0.105,
      0.175,
      0.07,
      -0.035,
      -0.14,
      0.14,
      0.035,
      -0.07,
      -0.175,
      0.105,
      0.0,
      -0.105,
      0.175,
      0.07,
      -0.035,
      -0.14,
      0.14,
      0.035,
      -0.07,
      -0.175,
      0.105
    ],
    [
      0.0,
      -0.07,
      -0.14,
      0.175,
      0.105,
      0.035,
      -0.035,
      -0.105,
      -0.175,
      0.14,
      0.07,
      0.0,
      -0.07,
      -0.14,
      0.175,
      0.105,
      0.035,
      -0.035,
      -0.105,
      -0.175,
      0.14,
      0.07,
      0.0,
      -0.07,
      -0.14,
      0.175,
      0.105,
      0.035,
      -0.035,
      -0.105,
      -0.175,
      0.14
    ],
    [
      0.105,
      0.07,
      0.035,
      0.0,
      -0.035,
      -0.07,
      -0.105,
      -0.14,
      -0.175,
      0.175,
      0.14,
      0.105,
      0.07,
      0.035,
      0.0,
      -0.035,
      -0.07,
      -0.105,
      -0.14,
      -0.175,
      0.175,
      0.14,
      0.105,
      0.07,
      0.035,
      0.0,
      -0.035,
      -0.07,
      -0.105,
      -0.14,
      -0.175,
      0.175
    ],
    [
      -0.175,
      -0.175,
      -0.175,
      -0.175,
      -0.175,
      -0.175,
      -0.175,
      -0.175,
      -0.175,
      -0.175,
      -0.175,
      -0.175,
      -0.175,
      -0.175,
      -0.175,
      -0.175,
      -0.175,
      -0.175,
      -0.175,
      -0.175,
      -0.175,
      -0.175,
      -0.175,
      -0.175,
      -0.175,
      -0.175,
      -0.175,
      -0.175,
      -0.175,
      -0.175,
      -0.175,
      -0.175
    ],
    [
      -0.07,
      -0.035,
      0.0,
      0.035,
      0.07,
      0.105,
      0.14,
      0.175,
      -0.175,
      -0.14,
      -0.105,
      -0.07,
      -0.035,
      0.0,
      0.035,
      0.07,
      0.105,
      0.14,
      0.175,
      -0.175,
      -0.14,
      -0.105,
      -0.07,
      -0.035,
      0.0,
      0.035,
      0.07,
      0.105,
      0.14,
      0.175,
      -0.175,
      -0.14
    ],
    [
      0.035,
      0.105,
      0.175,
      -0.14,
      -0.07,
      0.0,
      0.07,
      0.14,
      -0.175,
      -0.105,
      -0.035,
      0.035,
      0.105,
      0.175,
      -0.14,
      -0.07,
      0.0,
      0.07,
      0.14,
      -0.175,
      -0.105,
      -0.035,
      0.035,
      0.105,
      0.175,
      -0.14,
      -0.07,
      0.0,
      0.07,
      0.14,
      -0.175,
      -0.105
    ],
    [
      0.14,
      -0.14,
      -0.035,
      0.07,
      0.175,
      -0.105,
      0.0,
      0.105,
      -0.175,
      -0.07,
      0.035,
      0.14,
      -0.14,
      -0.035,
      0.07,
      0.175,
      -0.105,
      0.0,
      0.105,
      -0.175,
      -0.07,
      0.035,
      0.14,
      -0.14,
      -0.035,
      0.07,
      0.175,
      -0.105,
      0.0,
      0.105,
      -0.175,
      -0.07
    ],
    [
      -0.14,
      0.0,
      0.14,
      -0.105,
      0.035,
      0.175,
      -0.07,
      0.07,
      -0.175,
      -0.035,
      0.105,
      -0.14,
      0.0,
      0.14,
      -0.105,
      0.035,
      0.175,
      -0.07,
      0.07,
      -0.175,
      -0.035,
      0.105,
      -0.14,
      0.0,
      0.14,
      -0.105,
      0.035,
      0.175,
      -0.07,
      0.07,
      -0.175,
      -0.035
    ],
    [
      -0.035,
      0.14,
      -0.07,
      0.105,
      -0.105,
      0.07,
      -0.14,
      0.035,
      -0.175,
      0.0,
      0.175,
      -0.035,
      0.14,
      -0.07,
      0.105,
      -0.105,
      0.07,
      -0.14,
      0.035,
      -0.175,
      0.0,
      0.175,
      -0.035,
      0.14,
      -0.07,
      0.105,
      -0.105,
      0.07,
      -0.14,
      0.035,
      -0.175,
      0.0
    ]
  ],
  "b1": [
    -0.06,
    -0.03,
    0.0,
    0.03,
    0.06,
    -0.06,
    -0.03,
    0.0,
    0.03,
    0.06,
    -0.06,
    -0.03,
    0.0,
    0.03,
    0.06,
    -0.06
  ],
  "w2": [
    [
      0.24,
      0.36,
      -0.3,
      -0.18,
      -0.06,
      0.06,
      0.18,
      0.3,
      -0.36,
      -0.24,
      -0.12,
      0.0,
      0.12,
      0.24,
      0.36,
      -0.3
    ],
    [
      -0.24,
      -0.06,
      0.12,
      0.3,
      -0.3,
      -0.12,
      0.06,
      0.24,
      -0.36,
      -0.18,
      0.0,
      0.18,
      0.36,
      -0.24,
      -0.06,
      0.12
    ],
    [
      0.06,
      0.3,
      -0.24,
      0.0,
      0.24,
      -0.3,
      -0.06,
      0.18,
      -0.36,
      -0.12,
      0.12,
      0.36,
      -0.18,
      0.06,
      0.3,
      -0.24
    ],
    [
      0.36,
      -0.12,
      0.18,
      -0.3,
      0.0,
      0.3,
      -0.18,
      0.12,
      -0.36,
      -0.06,
      0.24,
      -0.24,
      0.06,
      0.36,
      -0.12,
      0.18
    ],
    [
      -0.12,
      0.24,
      -0.18,
      0.18,
      -0.24,
      0.12,
      -0.3,
      0.06,
      -0.36,
      0.0,
      0.36,
      -0.06,
      0.3,
      -0.12,
      0.24,
      -0.18
    ],
    [
      0.18,
      -0.18,
      0.24,
      -0.12,
      0.3,
      -0.06,
      0.36,
      0.0,
      -0.36,
      0.06,
      -0.3,
      0.12,
      -0.24,
      0.18,
      -0.18,
      0.24
    ],
    [
      -0.3,
      0.18,
      -0.12,
      0.36,
      0.06,
      -0.24,
      0.24,
      -0.06,
      -0.36,
      0.12,
      -0.18,
      0.3,
      0.0,
      -0.3,
      0.18,
      -0.12
    ],
    [
      0.0,
      -0.24,
      0.3,
      0.06,
      -0.18,
      0.36,
      0.12,
      -0.12,
      -0.36,
      0.18,
      -0.06,
      -0.3,
      0.24,
      0.0,
      -0.24,
      0.3
    ],
    [
      0.3,
      0.12,
      -0.06,
      -0.24,
      0.36,
      0.18,
      0.0,
      -0.18,
      -0.36,
      0.24,
      0.06,
      -0.12,
      -0.3,
      0.3,
      0.12,
      -0.06
    ]
  ],
  "b2": [
    0.1,
    0.0,
    0.45,
    0.0,
    -0.2,
    -0.6,
    -0.3,
    -0.9,
    -1.1
  ]
}
